4 128
1 -0.0033440841 0.00097213953 -0.0008577643 -0.0005191728 0.00038467956 0.0024540366 -0.00072579767 -2.583024e-05 0.0034848414 0.0016475264 -0.0001468164 -0.0020970954 -0.0007118788 -0.0026051537 -0.0027119904 0.001032501 -0.0023306662 -0.0015652247 0.0035331368 -0.002947736 0.0032155775 0.0021592889 -0.0012068345 0.0018211119 -0.0018926812 -0.0014173547 0.0026365896 -0.00036771665 8.0242535e-05 -0.0021256737 0.0013194255 -0.0012321423 0.0024538008 0.0023348304 -0.00070832024 -0.0027449457 0.0033944119 0.003129951 -0.0022679125 2.9455852e-05 -0.00087999454 -0.0038179003 0.0013197045 -0.00010188624 0.0033077614 -0.0037737428 0.00029401534 -0.0009285105 0.00037153135 0.0027991491 -0.0032386133 -0.0009131309 0.0007173764 -0.00258616 0.0033114261 -0.00015845649 2.033033e-05 0.0038564315 -0.001856473 -0.0031239314 -0.0012942117 0.0026092837 -0.0031032707 -0.0021757837 -0.0009576044 0.0026626152 0.0023038022 -0.0007486288 -0.002736483 0.0028332477 0.002448311 -0.00016982938 -0.0003949046 0.0025846695 -0.0022612896 0.0035346337 0.001216571 0.0038427843 0.0020811756 -0.0005573554 0.00060101657 -0.0013195395 0.0034947763 0.0019777666 -0.0033951513 0.003417963 0.0037000908 0.0005049955 -0.00011228744 -0.0027104558 0.0030079058 0.0011845963 -0.002161953 0.002746071 0.00047966087 0.00015447693 0.003556468 -0.0018246964 -0.0021570458 -0.0016329397 0.0016615728 -0.0031853465 -0.0005464194 0.0009220515 0.0030199555 -0.0032239852 -0.0016476818 -0.003048844 -8.910137e-05 0.0015974884 -0.0018392348 0.0025354186 -0.0038027775 0.0006108004 0.0037714113 -0.002900494 -4.6069847e-05 0.00078986917 0.0038696427 -0.0015208988 0.0036729774 0.0010487351 0.0034794959 0.0023245444 -0.0010392594 -0.002606708 -0.0011005036 0.00072805193
0 0.0011815362 0.00091709365 -0.0028674128 0.00023906588 -0.0027243155 0.0006552667 -0.0032558115 0.00060042937 0.0007951308 -0.00091409235 -0.00035872334 0.002245385 -0.003060424 -0.001719842 0.002830019 0.0035695178 0.0023153163 -0.0011287603 -0.0013869901 0.0024484475 -0.0034393647 -0.0028369885 -0.00323074 -0.0031568024 0.00036670273 -0.0037898822 -0.0015257963 0.0014952653 0.003885721 -0.00010164328 -0.0012614619 0.0008853575 5.648826e-05 0.0014425355 -0.003484959 -0.0028797148 0.001123637 0.0016952892 -0.00066341524 0.0037539345 0.002437743 0.0029271578 0.0029352205 -0.0034344683 0.002660799 -0.00027423052 -0.0036425022 0.0021790992 -0.0021957834 0.0015126286 0.0034806957 -0.0038176898 -0.0036843293 0.0017496378 0.0015056953 0.0008070003 0.0036625678 0.00045016178 0.0022303485 -0.00030900096 0.002232894 -0.001352942 -0.0013951967 -0.0024957706 0.001634991 -6.787161e-05 0.0008660346 0.0015673605 -0.0017794953 0.0016363392 -0.0011075733 0.0035561463 -0.0032319585 -0.0038344236 6.3096595e-05 -0.0012254892 0.00027519953 0.0018905826 0.0010521105 0.00078972586 -0.0023651717 0.0013189554 -0.0015374448 -0.0025682992 -0.0013764688 -0.0010390743 0.0036261666 0.00048037575 -0.0029494667 0.0024241046 -0.0017217869 0.00075278454 0.0026727065 0.001507345 0.003359007 0.00033792725 -0.0005394753 -0.0034019488 0.003879778 -0.0021542686 -0.0023869646 -0.0038057705 0.0010016754 0.001165437 -0.0037027048 -0.0021567584 0.0022809403 0.0023378194 -0.002338836 -0.0035597875 -0.0010617784 0.0019790845 0.0018240848 -0.0007357633 -0.00097816 -0.002787855 -0.00342378 -0.00069727516 0.0023201841 -0.0010485214 0.000971169 -0.0025022768 -0.0032382193 -0.0010874608 -0.00039148287 -0.0020819672 -0.00023523241 0.0030302322
2 0.0010134601 -0.00014349868 0.0009943694 -0.001750273 0.0028556555 8.151952e-05 0.0036813123 0.00010062625 0.00050047965 -0.0005767552 0.0012110916 0.000598063 0.0029108853 0.003248034 -3.4061784e-05 -0.00161672 0.00037704414 0.0036280088 -0.0022470024 -1.1394671e-05 0.0033909779 0.00024360363 -0.0005613984 0.0006177479 0.0004457622 0.0003064632 0.00095160026 -0.0011400754 0.0023780924 -0.001728696 -0.0027989505 -0.0032718943 0.0013129694 -0.002666908 -0.00089378614 0.0037174607 0.0009946179 -0.0014767995 -0.0031597917 -0.0016385885 -0.003684836 -0.0025743665 0.0033541496 0.0012661148 -0.0007468648 0.0019031481 -0.0029542134 0.0038290801 -0.0026495154 -0.00031939003 0.0009265725 -0.00085624505 0.0035448116 0.00019234366 0.0013475225 -0.002634457 0.0004155048 -0.0008203279 0.0004841379 0.0033166078 3.7378784e-05 -0.0023758118 -0.0018669325 9.8233686e-05 0.0011671799 -0.0026527063 -4.6432756e-06 -0.00022530572 -0.0014825284 -0.00025785906 0.00015843316 0.003142508 -0.0029469088 0.0007525898 -0.0026027877 -0.0038124144 -0.00035152683 0.0014798811 0.00039520455 0.0008041877 0.003321293 0.0013473504 0.0013153425 -0.000501643 -6.261709e-05 0.0032194539 -0.00091282633 -0.0024987515 -0.003418939 0.0017719392 -0.00017919604 0.0037221622 0.001560319 0.0016684288 0.0026984725 0.0036125784 0.0012962309 0.0009362681 0.0024770203 -0.0036514339 -0.0014986908 -0.0031179804 0.0002627223 0.0036745958 -0.002220201 0.0022255455 -3.6564885e-05 -0.00198118 0.0030760383 0.0038695878 -0.0020145203 -0.00092561444 -0.0020183045 -0.0018453781 -0.0019412165 -0.00051307486 -0.0010386478 -0.0021895259 0.00087015267 0.0019032928 -0.0012305805 -0.0022348538 -0.0037775796 -0.0018018252 -0.001148907 0.0016537302 0.0036488338 5.342031e-05
3 -0.0027135746 0.0002823304 0.000746264 0.003686238 -0.0022004943 0.0021231815 -0.0008066208 -0.00049098994 0.003163349 -0.0022667255 -0.00238281 0.0030221469 0.0009987473 0.002339485 -0.0025316095 0.0004163397 0.0037070254 0.0021143015 0.0034344373 -2.1529946e-05 -0.0034086464 0.0038902361 -0.002308142 0.0031324693 -0.0021236425 0.0025626286 -0.0008303183 -0.001532587 0.0027679075 -0.0016304553 -0.00033736235 -0.0016916462 -0.003853353 -0.0013813276 0.0021337236 0.002360857 0.00075489224 -0.002304205 -0.0023714884 -0.002970337 0.003003646 0.0038841863 -0.0014372402 -0.0021770233 0.0019798346 0.0036009904 -0.00023040356 -0.0035377971 0.0034048925 -0.0007475804 0.0020158058 -0.001730004 -0.0033086222 1.5860705e-05 -0.00042428513 -0.0019162202 0.0038018636 -0.000821278 -0.0023413063 0.0030297406 0.0024549456 0.00040928973 0.00022077214 0.0033439854 -0.0031520794 0.001762711 -0.0027199266 -0.00210584 0.002166469 0.0005007044 -0.0028653655 -0.0022206176 0.001240244 -0.0006473616 -0.00068075286 0.0015298923 0.002483482 -0.00013484394 -0.0027535106 0.0013952265 -0.0020158463 0.0021216355 0.0014577224 0.00036480275 -0.0019949086 0.0009898439 0.0027887642 0.00071989815 -0.00089608034 0.0022211804 0.0018954218 0.0031527728 0.0030624983 0.0009919588 -0.0038828095 0.002790274 0.0021779933 0.0020547644 -0.0035940171 -0.0011374563 -0.0011946765 -0.003588984 0.0019732323 -0.0017250244 -0.0013219118 0.001590456 0.0031865516 -0.00214534 -0.0016871311 0.0021504096 0.0010226594 0.0009803621 0.0019112142 -0.0010774304 0.00092218287 0.000120022116 -0.003706998 0.0019314813 -0.0019204741 -0.00013055044 0.0013901684 -0.0019398542 0.0013821998 0.0030435848 0.0017741711 -0.0036182161 0.0028580306 -0.002230742
