4 128
1 -0.0016916365 0.0019292028 0.0013593076 -0.0038388625 0.002748275 -0.0015666443 -0.0034854962 0.0012642641 0.0035722908 0.00084283913 0.0026186155 -0.0016979722 0.003483585 -0.002969592 0.0021896192 -0.0023764847 0.0023059773 0.002065455 0.0008755902 -0.0028816094 -0.00092863967 0.00024648046 0.0025430617 0.0030884137 -0.0010161373 -0.001095528 0.00022973995 -0.0018679867 -0.0002633611 0.0012858857 -0.0036483726 0.0010296273 0.0006370522 -0.003874285 0.0014489158 0.00091576984 -0.0019180966 -0.001596723 0.0020632043 -0.0023888682 0.00080879556 -0.0026393633 -0.00054000906 0.0024851197 0.0023734975 0.0038650583 0.002273999 -0.0020714095 -0.00083759084 0.003703863 0.0015338105 -0.00096563186 0.0008309692 0.002622068 0.000957481 -0.0022343853 0.0005668287 0.0020446803 -8.228275e-05 0.0024757509 -0.0013475805 0.00052005047 0.0010728259 -0.0012688772 -0.002105065 0.0017840874 3.6997797e-06 0.0033349022 0.0012367527 -0.0030756707 0.0031446689 0.0004994831 0.00094158354 -0.0011466681 -0.0011429811 0.0005488757 0.0036684365 0.0005172998 0.0016087355 -5.7223468e-05 0.0036957753 0.000614752 -0.0027063983 0.0017811796 0.0018600967 0.001541199 -0.0012512843 -1.9545183e-05 -0.0034793727 0.0026063623 -0.0016181236 0.0017434671 0.0011175597 0.0004655066 -0.0028855004 -0.0032923622 0.003893173 0.0012655149 0.001287923 0.0032303485 0.0030122458 0.002662177 0.0029940999 0.0011559102 -0.0022760031 -0.0020821919 -0.0031368858 0.0028632688 -0.0010968201 0.0028204028 -0.0007078812 0.0012738953 -0.00267164 0.00013729195 -0.0033958363 -0.002525956 0.00052402134 -4.2653108e-05 -0.0007264265 -0.0002018775 -0.00031750015 0.0037080161 0.0008525599 0.0002714845 -0.0038364679 -0.0008079026 0.001130798 0.0006082651
3 0.0033007895 0.0022315488 0.00032893277 -0.0004675304 -0.0009027808 -0.0008819972 -0.0030055314 -0.0013963374 0.00060497544 0.0029757912 -0.00041521876 0.003557165 0.000902619 -0.0012330809 -0.0017278938 0.0018505851 -0.00087241014 -0.00090763037 0.0022107572 0.0033140674 -0.0011255952 -0.0009292189 -0.00047176957 -0.00018207557 0.0017809176 -9.9549594e-05 -0.0038649936 -0.0014895898 -0.002709786 0.0011797638 -0.0016115641 0.0027896734 -0.00053543533 0.0019379597 0.0021214993 -0.00011615198 0.0029504136 -0.0034650902 -0.0036377865 -0.0037525224 0.0019593413 -0.00015940437 0.0010412798 0.0038550538 0.0002440381 -0.0033527082 0.00077605917 0.0037480756 -0.00067999476 7.2515584e-05 -0.000363242 -0.0024235253 -0.0003234782 0.0022251573 1.370268e-05 -0.0019190994 -0.0021200457 0.001933264 -0.00042438626 -0.0012803437 -0.0015011192 0.0011424212 -0.0007913755 0.0029246742 -0.0015115158 0.0028262755 -0.00030019713 0.0036366973 -0.0037559853 0.003666132 -0.0024617345 -0.0027483169 0.00016861761 -0.0035497136 -0.0018702166 0.0034719151 0.0037350433 9.1131646e-05 2.5850555e-05 0.0024451471 0.0036236383 -0.0026367183 0.0020025035 -0.0036346163 0.0037240242 -0.00010219279 -0.0031300583 0.00285259 0.0002938826 -0.0018418954 0.0010641598 0.0016053444 0.001097393 -0.003080361 0.00019643173 -0.0018914981 0.0022874165 -0.0009964829 -0.0005146808 -0.0027767867 -0.002454861 -0.0018715747 -0.0014688853 -0.002805008 0.0023803834 -0.0022258519 0.0033662736 0.0023961163 0.0015179599 0.0028171607 0.0029084526 0.0023719457 -0.00060396886 -0.0010393228 0.0024764037 -0.0013242109 0.001697788 -0.00046365167 0.0036448543 -0.0032567456 -0.00043027103 0.0036542744 0.0031010802 -0.0026822789 0.00029413315 0.0011708052 0.0029730843 -0.0028806017
0 0.0006578047 -0.0018136706 -0.0024626115 -0.0004076848 0.002003355 -0.0033493175 0.003615382 -0.0026927597 0.0012324308 -0.002079945 -0.0010561937 -0.0023145757 -7.41643e-05 -0.0021247715 -0.0029531063 0.002692167 0.0010232594 0.0018521642 0.002186846 0.0014406929 -0.0005937069 -0.0026301206 0.00035219244 -0.0016162487 -0.0012528287 0.0008911765 0.0019019259 0.001432337 0.0013041586 0.0022398692 -0.0008728797 -0.003735468 0.002416823 0.002705938 0.00015940322 -0.0032300188 0.0028874178 -0.0024439518 -0.0031448444 0.0010809781 -0.0021425332 0.0009502375 -0.0013040596 -0.00073943747 0.00030114982 0.003017801 -0.0014412821 -0.003786054 0.002552053 0.002448313 -0.00019829113 -0.002275519 -0.00013990884 -0.0010104603 0.0015034857 0.0039019296 0.0012991759 -0.00305091 -0.0007062197 0.00011473947 0.0027665193 -0.0035081778 0.0031429501 0.0031914292 0.003647766 0.0020457185 -0.002813814 0.0009293861 0.0025825833 -0.0026083358 0.0015580825 -0.000488299 -0.0025748662 -0.003009338 0.0005257303 0.0022375577 0.0017271154 0.0026195138 0.0031783783 0.0032951583 0.0036188387 0.0028487358 0.00014342162 -0.0021611596 -0.00025481143 -0.0031187208 -0.0028422389 0.002747595 -0.00020707825 -0.001251861 -0.0028155076 0.00097633846 0.0033443656 0.0027392998 0.0005244498 -0.0031313829 0.0032238618 -0.002549882 0.0006657741 -0.003471042 -0.003416347 0.0031820901 -0.000776468 0.001157802 -0.002123858 0.0027772342 -0.0014567384 -0.0016556982 0.0005083735 -0.0011954983 0.0035034143 -4.9520735e-05 0.002876518 -0.0017195813 -0.0011193102 0.0018689036 -0.0036225773 0.0019672515 -0.0019619074 -0.00044193078 0.00240719 -0.00064617157 0.00014507194 0.002397901 -0.0032954807 0.002639532 -0.0031820738 -0.0017617565
2 0.0035289596 0.00044082108 -0.003257164 0.0036216006 -0.00063932996 -0.0028334116 0.0024173222 0.0010364515 -0.002944339 -0.003693048 -0.00045625644 -0.003125271 -0.0031135306 0.0008708274 0.0022350093 0.00018561745 -0.0011221393 -3.351761e-05 -0.0038573965 -0.003774107 -0.0028322954 -0.00021226396 -0.0006736975 0.0030737184 0.0033924181 -0.000948801 0.001985767 -0.003901114 -0.003344313 -0.00032208482 -0.0029001634 0.0014887179 -0.0026465487 -0.0016524929 0.0027710714 0.0035357615 0.0034733673 0.0029169975 -0.00020810877 0.0002856985 0.0035143911 0.00068963016 0.00044430688 -0.00013453593 -0.002802805 0.00029327584 -0.0025306672 -0.0014223466 0.0032897661 0.0025865405 0.00275449 0.00035920297 -0.0006773708 -0.00058080314 0.0015077357 -0.00073824986 -0.0014600473 -0.0027793723 0.00059540634 0.0036946854 -0.002790608 -0.0016444057 0.0008750779 0.0027055468 0.0029359658 0.0030067337 -0.0036284751 -0.0018404744 0.0019721382 0.0009244677 -0.003124781 0.0035278343 0.0037259602 -0.0002729316 0.0027733643 -0.0035981005 -0.00016353592 0.0018551431 -0.0001108416 0.001785236 -0.00250477 0.0004254109 -0.0035381983 -0.00060868193 -0.0036852635 0.0010243458 0.0015627609 0.003437755 -0.00062937115 -0.003664842 0.003820979 -0.00088973047 -0.0025821435 0.002493849 -0.0007609276 -0.0038001558 -0.00094542967 -0.0001515352 0.0013804932 -0.0036783887 0.0026442418 0.0018880673 -0.002576662 0.0017871567 -0.00027247975 0.0015177092 0.00046018692 0.003179018 -0.0028148887 -0.003511451 0.0034312385 0.0035690197 -0.002925223 0.003210646 -0.0017428666 0.0037883688 -0.0011383828 -1.4821982e-05 0.0036007462 -0.0023422777 -0.0027247104 0.0014914516 -0.002052638 -0.0004109644 0.0006539641 -0.0012799322 -0.00046905573 -0.00020800003
