4 128
0 -0.0011837442 -0.0011753972 -0.0011424614 0.002218868 0.003197202 0.0031953636 -0.0007321131 0.001983965 -0.002107016 -0.0017987532 0.0006013915 0.0021138128 -0.00085664575 0.0003885328 -0.0013942202 0.0029740992 -0.0038687626 0.003832699 0.0025293715 0.0023481636 0.00098933 0.002287378 0.0014693489 -0.00036071712 -0.0036559384 0.0021377723 0.00016863576 -0.0017305732 -0.0029434264 0.0013153207 -0.0023284468 0.0003600877 -0.0028723236 -0.0016466917 0.0021790017 0.0031745618 -0.0011768051 -0.0027927444 -0.0027677782 -0.0023288797 -0.003845218 0.0010940252 0.003633113 0.0018837374 -0.0024627505 -0.002206833 -0.00048284009 -0.0035490496 0.0015960981 0.0007134792 -0.003072645 0.002545242 0.00024920754 -0.0004770568 0.0023601851 -0.0021275072 0.0021876933 0.0011385797 0.003883359 -0.0024366288 -0.0022986294 0.0018500923 -0.00023104827 0.0037226481 0.0016804703 0.0031892627 0.001350944 -0.0022922219 -0.002826188 -0.0030645272 0.0013578602 -0.002920545 -0.0025206336 -0.0019499522 0.003257388 0.00086054904 -0.0015295966 -0.0029332847 7.201502e-05 -0.0013177276 0.00092194916 -0.0030547623 -0.0024927752 -0.00068869983 0.0037459652 -0.003300489 0.0031802633 0.0019911395 0.0001027798 0.0020319254 0.0009132931 0.0027474568 -0.0022385623 -0.003231152 0.0031081224 -0.0018447833 0.002596963 -0.00026297444 0.0009414009 -0.002202958 -0.0024130605 0.0008003771 0.0008839836 0.003630137 -0.0029021837 0.002021854 0.002987213 0.0010044801 0.0013763 -0.002876244 -0.00079984573 0.0037860884 0.002036173 -0.0032568618 0.0012529166 0.0008499419 -0.0022402364 0.0023735745 -0.001011268 -0.0009311852 0.0039042446 0.0011306502 0.0035884737 0.003767129 0.0015782403 0.0014121592 0.00022382225 0.0032640947
3 0.0010141769 0.0021858704 -0.0018111599 -0.0032964828 -0.0028374337 -0.0010645902 -0.0021857733 -0.00036566117 -0.0007506433 -0.0006148079 -0.0014986374 -0.0017874156 0.00083881593 0.002326852 -0.0003027331 -0.0006342758 -0.0014322499 -0.003878602 0.00020217629 0.0011318962 0.0036513337 0.0009029948 -0.0024003547 0.0013227237 0.0024644334 -0.0037821017 -0.0037046587 0.0012533058 0.0034950916 0.0027883826 0.0006498622 0.0011066985 -0.001991291 -0.0037459622 -0.0006692357 0.0025460424 0.0035023587 -0.001659817 -0.00035489103 0.0021871917 -0.0009204862 -0.0037179904 0.00060054165 0.0028873952 -0.00022754 0.0016748331 0.0019223085 0.000838307 -0.00068536133 -0.0032562108 -0.00086154544 0.00097102777 0.000495258 -0.0029437507 0.00027790517 0.0016261423 0.0031280345 -0.0027320185 0.0037821687 -0.0016090054 0.0028607813 -0.002045816 -7.140143e-05 -0.0018224382 -0.0009862466 -0.0025929324 -0.00095323886 0.00023090659 -0.00062427827 -0.00028021194 -0.0030037914 0.0019010629 -0.0024419732 0.0031520682 0.00077924697 5.772038e-05 -0.0020403683 -0.0015905224 0.0016887895 -0.002284777 0.0014474558 0.00020562368 -0.00035866525 -0.00025160488 -0.00020283293 0.000121590136 -0.0036094398 0.00090144476 -0.0010626842 -0.0010962039 -0.0037582128 -0.00090449123 -0.0017141106 0.0014819875 -0.0007744967 0.00037417223 -0.002636414 -0.0010762279 -0.0008679802 0.002103961 -0.0032662286 -0.0012344784 0.00039563497 -0.00048226386 -0.00025154982 0.00037055372 0.0021982035 0.0013105075 -0.0032970817 0.0020704088 -0.00042260738 -0.0024571542 0.003651526 0.0031479043 0.003170867 -0.002691131 0.0010426228 -0.00013942775 0.0005367164 -0.002807491 -0.0034546945 0.00046951987 -0.0011208245 0.00207735 0.002235057 -0.002957576 0.00071593054 -0.002516651
1 0.0021977518 0.001004792 -0.0021805628 0.00038248466 -0.0037914522 0.0017191143 -0.00069591316 0.0017727308 0.0021523263 0.0026443612 -0.00016733372 -0.0020027205 -0.001297903 0.0032119781 0.0028959163 -0.003315715 0.0014310809 -0.0018721992 0.002455104 -0.0009417605 0.0030720735 0.0017669084 0.0019984797 -0.003407274 0.002496808 0.0015355056 0.0026798462 0.0018267266 0.001673725 -0.0014805666 -0.00023455409 0.0023697976 0.0003725075 -0.0009476342 -0.0014936129 -0.0028612546 -0.0037535354 -0.00043572966 0.003013299 0.0033347572 -0.0032610623 -0.0015420481 -0.00075575034 0.0015052622 0.0029920822 -0.0015977583 0.0025651467 0.0032877561 -0.0005922934 -0.0009811711 0.0011393336 -0.00036356953 0.0013802658 0.003801009 0.0026648287 -0.00053491606 -0.0012193752 -0.0015848831 -0.0015663699 0.003693731 6.1795254e-05 -0.001281145 0.0032852045 -0.0020980695 -0.00095346005 0.000290652 -0.0029829324 0.001689862 0.0038831686 0.0011270269 -0.0029100047 -0.0027213134 -0.00042345046 -0.0025881166 -7.591806e-05 0.0025323727 0.0009108404 -0.00053027377 0.0011325388 -0.003331181 0.0025991714 0.0018116251 -0.0025823459 -0.0013310099 -0.0038999158 -0.00056695606 -0.0015607817 0.003486317 0.0019164818 0.0014304507 0.0011533092 -0.00062094367 -0.0016852492 -0.0029625678 -0.0017846485 1.27086e-05 -9.58962e-06 -0.00037628316 -0.0016681578 -0.0015323821 -0.00028330894 -0.0030485115 -0.00017923264 0.0036090678 0.0025911087 -0.00031643017 0.002138222 0.0024667864 -0.0016108524 -0.00075255905 -0.0027644876 0.0008684041 0.0023811874 -0.00029101697 0.0037914265 -0.0026507026 -0.0030588228 -6.824938e-05 -0.0019750101 0.001662988 -0.0020940006 0.0014341729 -0.0022070974 -0.0033963947 0.0019498855 0.0027771383 9.002348e-05 -0.0015189085
2 -0.0032270325 -0.0037533897 0.0009162342 -8.606664e-06 -0.0024783527 0.0032508546 -0.002829049 -0.0030349668 0.0028863456 -0.00024754027 0.00015608332 0.0012977079 -0.0015029787 0.0005459042 0.001987671 -0.00053008593 0.0016422075 -0.0018139313 -0.0028263866 -0.0014301619 0.00080262154 0.0033105398 -0.0038004462 -0.0009806419 0.0010670924 0.00084895646 -2.4588271e-05 -0.0030941376 0.0015385841 -0.0028606348 -0.0010945639 0.0010052075 0.0027921083 0.003352006 -0.0026001257 0.0002038462 -0.0027735739 -0.0025169668 0.0021331788 0.00038102941 0.0027781522 0.0029800897 -8.982229e-05 0.0025506828 0.0028853994 0.0002017568 0.0027632923 0.0003471675 0.0010797048 -0.0011742013 0.00012980885 -0.0030120718 0.0037932284 -0.0019463818 -0.0014253671 0.00068206585 -0.0016012567 0.0011099873 -0.00056600996 -0.0021643837 0.0034829834 -0.0013223465 -0.0006328121 -0.0030175748 -0.0026463154 -3.121683e-06 0.0037992252 0.0024607629 0.0012333635 0.0012770185 -0.0019383456 -0.00296194 0.002331062 0.0031659992 0.0010826921 -0.0012348054 0.0035004057 -0.00066738995 0.0027731021 0.0004425036 -0.0027454083 -0.0023261337 -0.0032957338 0.0037714266 0.0016837325 -0.0013102745 -0.002711646 -0.0030134358 -0.00042814275 0.0038881819 0.002364779 -0.0025938198 4.2562253e-05 -0.0028781726 0.0007587794 -0.0017998584 -0.0009324985 -0.0025787351 0.00020950384 0.0021322563 0.00025676162 0.0033167114 -0.0025640288 0.003152052 -0.001046127 0.001155091 0.003182076 -0.0008728226 -0.002551807 0.0031536673 -0.0014723764 -0.0024069636 0.0011914795 0.0034818426 -0.0005502531 -0.002976937 0.0029612465 0.0010551697 -0.00066285825 0.0025844346 0.0038022753 0.0018034693 0.002177689 -0.0036547408 -0.002836269 0.0038371743 0.002877005 -0.0032709865
