4 128
3 -0.001618798 -0.0032937396 0.00022766275 -0.0035760389 0.0032425718 2.7572328e-06 0.000434982 -0.0007604319 0.0030870263 0.0029446827 0.0031580261 -0.0010952465 -0.003840886 -0.00061085104 0.0025745304 -0.0024676882 -0.0015953996 0.0036066854 0.00053639215 0.002457221 -0.001601173 0.003128318 0.0016895612 0.0032174431 -0.002298676 -0.0030798484 -0.00035544494 0.0032653064 0.0021599226 -0.0036776296 0.0016192913 -0.0028374318 0.002414117 -0.002779701 0.0026737195 -0.0010427916 -0.0031768118 0.00020334947 -0.00074753363 -0.002051104 0.002148232 -0.0031346795 0.002181332 -0.0034788155 -0.00032422756 -0.0019853665 0.0014682026 -0.0029570293 -0.0029958808 -0.0030395142 -0.0010431582 -0.0003414262 -0.0032303613 -0.0031666001 -0.0010938374 0.00066515803 -0.0023653468 -0.0035799036 -0.003427328 0.0017735072 0.0032801114 -0.0015917803 0.0038213066 0.0020149497 -0.00038148035 0.0024839225 -0.0013663181 -0.0023041668 0.0012865035 -0.0037896356 -0.0027058015 -0.003641742 -0.000892731 -0.0036806604 0.0034067133 -0.0009597057 0.0005619991 -0.0007348071 0.0031431122 -0.0008281514 0.0025378 -0.0033115242 -0.0038493248 0.0034333786 0.0031934306 -0.0027920199 0.0026222758 0.0011918283 0.00237761 -0.0029685693 0.0038112155 -0.00091685436 0.0018701407 0.0013969115 0.0036081271 0.003831762 0.00023518622 -0.00064964977 -0.0034646927 -0.0028640665 0.0009815388 -0.0016503312 -0.0017328762 -0.00017469162 -0.0012142062 -0.0020244215 0.00015231225 -0.0021964645 0.0036022281 -0.0018714931 3.997837e-05 -0.0004961503 0.0028757367 -0.0017140718 -7.3448144e-05 -0.0031028695 -0.0038019468 0.0003786489 -0.002083914 0.0038605914 0.0020366793 0.0013666297 -0.00012785534 -0.00187916 -0.00050365145 -0.0018778023 -0.00230772 0.0034638739
1 0.0031939237 -0.0011793734 0.0016836697 0.00070963823 -0.0027320758 -0.0020700295 -0.0022107959 0.0032286772 -0.0025842632 0.0035192205 0.0015383358 0.0014517352 -0.003401049 -0.0032636044 0.0030139023 0.0029679043 0.003626512 0.0016105733 -0.00085371 -0.0010008035 -0.0019264554 -0.0010416853 0.0029785838 8.00634e-05 0.0013949671 0.0013419648 0.0012896918 -0.0010974664 -0.002715155 -0.0025020603 -0.0015189766 -0.00096532644 -0.0018746011 -0.0035096237 0.0012386375 -0.0011332488 0.0027644068 0.002232987 0.00015644693 0.0012213186 -0.003282233 0.0031381755 0.003707278 -0.0018775512 -0.0030172183 0.00027731957 -0.00061549176 -0.0034681167 -0.0022074468 0.0022273061 -0.0017749915 0.0009268599 -0.001575044 -0.001818912 -0.0036330686 -0.0037146148 0.0013281775 0.0020479064 0.0006881927 -0.0012574516 0.00063042965 0.0013651004 -0.0032341327 0.0037604005 0.0037520144 0.0022451906 -0.00035072645 -0.00016490958 -2.6490747e-05 -0.0021487272 -0.00081638154 0.00025619828 -0.002071484 0.0026766371 0.0016258535 -0.0023756002 0.0018422763 -0.0027159287 -0.0026409477 0.0027499741 0.00030627992 -0.0012388895 -0.0034058923 -0.0036245266 -0.0034688332 -0.0017761976 0.00013549987 -0.0017635039 -0.0008483539 0.0012809746 0.0034305856 -0.0007620051 -0.0012322813 0.0017497258 0.0018788344 0.00024129263 0.0031833977 0.0028458964 -0.0022973153 0.0015091714 0.0031399673 0.0036765242 -0.00021003021 0.0038832305 -0.0031956201 -0.0006970323 -3.3840613e-05 0.001846855 0.002597934 -0.0025491428 -5.0965897e-05 -0.0033028198 0.00038579182 -0.0023346578 -0.0018789101 -0.0006281118 0.0021018812 -0.0033792339 0.0024449995 -0.00010741063 0.00074075145 -0.0038417217 0.0030467522 -0.0019667223 0.001874911 -0.0038190682 0.001503037 0.00069738296
0 -0.0028008588 0.0014606828 0.0023521206 0.0017853078 -0.0012033207 0.0018309706 0.0025194064 -0.001030672 -0.0015691627 0.0014056731 0.0023315535 -0.002645547 0.0010925713 -0.0015281232 -0.000585196 0.0035023112 0.0011393931 -0.0023621465 -0.0028484385 -0.0005463144 0.0017775106 -0.0013998348 0.0023611258 -0.00020994237 -0.0026742378 -0.001925984 8.392674e-05 -0.0029987646 -0.0023107117 0.0036629387 -0.0026965959 0.0019774914 0.0027920236 0.0020745748 -0.001363211 -0.0028624914 -0.0024463262 -0.0005054129 0.0025114634 0.0025185002 0.0015893886 0.0012057717 0.000901252 -0.0037731407 0.0028687732 -0.0038268694 -0.0036330982 -0.0011349672 0.0024032542 6.8737386e-06 -0.00080545765 0.0007650237 -0.0014720496 0.0013856348 7.2926116e-05 -0.0009393646 0.0034039605 -0.0022876847 0.0009813512 -0.003102114 -0.00024979605 0.0028884427 0.0030400518 -0.0021825617 -0.00092971383 0.002018835 8.227675e-05 0.0010742744 -0.0028389022 0.0010625226 -0.00013250786 0.0027615463 0.0016376831 -0.0025986107 -0.0006210814 0.003171898 -0.0017856867 0.00297546 0.0023332576 0.000470233 0.0031070693 -0.0038804465 -0.0030208423 -0.00043913082 -0.0017036427 -0.0021729139 0.0009864694 0.0020569633 -0.0022727232 0.0038442544 0.0037020831 0.0012791102 -0.0005610801 -0.001614476 0.00236458 -0.0016930636 0.0011565115 -0.0029693583 0.0022282223 0.003500723 0.0028056556 0.0021323287 -0.0023693535 0.0029672 0.0014098086 0.0019623584 -0.00026411796 0.0022524463 -0.0035433741 0.0029098534 0.0003864217 -0.002539532 -0.00077592174 -0.0017685487 0.0016852558 0.00033897982 0.0028021105 -0.0024910253 0.0008952635 0.0014051757 1.6294676e-05 0.002725331 -0.0017094831 0.0014967278 -0.0005228806 0.0035805488 -0.002357055 -0.002993186
2 0.0021033315 -0.0016389806 -0.0008253402 0.0035050507 -0.0031213919 -0.0029823913 0.0010474884 0.002075839 0.0026150057 0.002069912 -0.0031603137 -0.0016666561 -0.0037803059 0.0036840339 -0.0023439003 0.0009961386 -0.002354864 -0.0009131814 5.9837257e-05 0.0006505049 -0.0035438763 0.0011634895 -0.0019805352 -0.00076035276 -0.001118896 0.0017113691 0.003719789 -0.0008408647 -0.0035636835 -0.0034716816 -0.0030147259 -0.0024968644 -0.0013571006 -0.0019796807 0.0021492327 0.0037884598 -0.0008261111 0.002141551 -0.0006072577 -0.0029876833 0.0032241496 -0.0026487755 -0.0028921075 0.0038193134 -0.0007273419 0.0030009565 -0.0036149386 -0.0020871654 0.0031001703 -0.002954559 0.0023055426 0.0025174487 0.0011758765 0.0031555933 -0.0020182943 -0.0013580389 -0.0019155947 0.0020261132 -0.0017330248 0.0012139115 0.0018732615 -0.00021927457 0.0017059505 -0.002439812 -0.0015030489 0.0034810468 -0.0017979025 -0.0024357475 -3.5798184e-05 0.0004826975 0.0009956763 -0.0016550266 0.0010065088 -5.724717e-05 0.0011782176 -0.0013973908 0.0034860563 0.0009954602 -0.0004921853 -0.0009885217 -0.0033267387 0.0009599054 0.0025335972 0.0026306845 0.0015074166 0.003786535 0.0011607652 0.002395471 -0.001824468 -0.0018335527 0.0022480765 -7.9324636e-05 0.0033180427 -0.0009742145 0.0031454994 0.000107926295 0.002216167 0.000557398 0.0014490187 0.0015460534 -0.0011145893 0.0013832477 0.0028304774 -0.0014171095 0.00017909311 0.0037945034 0.003583183 0.0035019387 0.0011595616 0.0015919375 -0.0015854132 0.0036574714 -2.0401358e-05 0.003113315 0.0009564671 0.0019011346 -0.0012641451 -0.0008046616 0.0023351058 0.0014147799 -0.003092514 -0.00223327 -0.0030507452 0.0013161271 0.0020330814 -0.0008483153 -0.001387431 -0.0036931206
