4 128
1 0.0030728853 -0.0007324854 -0.0022307758 0.00071006204 -0.0003233136 -0.0023142335 0.0009303519 -6.148827e-05 0.00032405593 0.0004194413 -0.0008559371 -0.003009057 0.0017223975 -0.00076842296 0.0003784828 0.0035808056 -0.0029577876 -0.0005491793 -0.00052628433 -0.0031793548 0.0018777681 -0.0026673991 -0.0038472458 -0.0031752135 0.0030000003 -0.00062396895 0.0013695592 0.00063870894 -0.0025868607 -0.003120159 0.002253601 0.002194067 -0.0037249036 0.0007501977 0.002220988 -0.0007418786 -0.00079600525 -0.00056284585 -0.002517648 -0.0010025349 -0.003877187 -0.0018086373 0.0037281632 0.0020289354 0.003762487 -0.0019213016 0.002581977 0.0013653674 0.0006460663 -0.0029742722 0.0008061879 0.0024378041 0.0012860182 0.001819714 0.0032766967 -0.00024860902 -0.0029818455 0.00024780162 -0.00089508767 -0.0032965401 0.002761316 0.0018928008 0.0032686205 0.0013637999 -0.003518959 -0.0031636045 0.0015527263 -0.0035136617 -0.0032420738 0.0021955548 -0.00012874762 0.003330535 -0.0028900893 -0.0036382875 -9.8133874e-05 -0.0006094843 0.0018759549 0.00078399427 -0.0007878326 -0.002238652 0.000510258 -0.0010989665 -0.0036242015 -0.0035111636 0.0032227247 0.0026809713 7.8548066e-05 -0.0006534074 0.0010890213 -0.0006263422 -0.002414073 -0.0006555308 -0.0037884426 -0.0027129778 0.000663949 -0.0030665395 0.002155534 0.00035113137 -0.0028429748 -0.0008282589 -0.0031178447 -0.0017324905 -0.0017826221 5.303604e-06 0.002276621 0.0015102999 -0.0029009066 -1.0270357e-05 0.0032817295 0.00024367415 -0.002017032 0.0019105441 5.5743745e-05 -0.0038882096 0.0027122546 -0.0021710577 -0.0009410867 -0.0012314536 0.0024151884 0.0014965722 -0.00224457 -0.0027697321 -0.0036027927 -0.002603075 -0.0006874911 0.0012060342 0.0010012097 -0.0012651081
2 0.0006999717 -0.0015306188 -0.0007684389 -0.00086343207 -0.0019947076 0.00175169 0.0033332913 0.002035727 -0.0020608562 0.0011218337 0.0031263703 -0.0010590524 0.0023778742 -0.002223156 -0.001128228 -0.0014013336 -0.0031925018 0.0036812534 0.0030773415 0.003708068 0.0012621256 -0.002571465 0.0009352459 -0.0028951194 0.0036057923 0.0010494774 0.0013837414 0.0022595953 -0.00018252758 -0.0018396961 -0.0029039055 0.0020955333 -9.8507975e-05 0.00018457146 0.003737059 -0.0006927792 0.0034387037 -0.0030780586 0.000252918 0.0020441823 0.0015106669 -0.0029359052 -0.002816012 9.169209e-05 0.002409496 0.0037760406 -0.003663636 0.0027521923 -0.00303852 -0.0014411951 -0.0008218778 -0.0028137723 -0.0005230498 0.0003858172 0.0015897325 -0.0009646072 -0.0011889306 0.0039018842 0.00076004677 0.0010305595 0.0017886063 0.00202491 -0.0022057956 -0.0032320742 0.0006474413 0.0038210684 -0.0038238738 -0.0029432788 0.00016794476 -0.0032284353 -0.0038877302 0.0010932102 0.0023532056 -0.00034043318 -0.003227485 -0.0004273164 -0.0023408264 -0.003321646 0.0024141204 0.0030151727 -0.0011123057 0.0016070142 -0.00049639726 0.00032172172 0.0035997692 0.0028558664 0.003632893 0.0016744852 -0.0016937186 -0.0009246564 0.0017017395 -0.0028960656 -0.00067242165 0.0002929673 0.0033945094 -0.00012054736 -0.0007979778 -0.0027500747 0.0016351988 0.001711529 -0.0014081296 0.001732045 -0.0032277051 -0.0013642103 0.0001329619 0.00090328156 0.00072980317 -0.0020699815 -0.0009575529 0.0022591688 -0.00066363375 -0.0008588568 0.002750129 -0.00238833 -0.002069484 0.00025807676 0.0029260635 0.0020384993 -0.0001124096 -0.0018400344 0.00079036143 -0.0011076238 0.0018917458 0.0013023907 -0.0037376417 -0.0032500704 -0.0028202236 -0.0016463873
0 0.0034475247 -0.00021304184 -0.003835771 0.001899491 -0.0039052558 0.0017706192 -0.0018760655 0.003484489 -0.00042172664 -0.0017442034 0.0014596919 -0.0035209102 -5.0846305e-05 0.00037805873 -0.0027377044 0.0010336429 -0.003844099 -0.00089349545 0.0032830974 -0.0038181548 0.0035265423 -0.0022329835 -0.0025137428 -0.0026838088 0.0036419446 0.0020886108 0.0015617333 0.0024376311 -0.001998062 0.0018992783 -0.0023402967 -0.0020000068 0.0033017597 0.003659738 8.957476e-05 -0.0024386921 -0.0031428607 0.0026468646 -0.0005539961 -0.0021708417 0.0018376919 0.00235417 0.00046105302 -0.0033903478 -0.001203801 -0.002708757 0.0008564127 0.0037458043 -0.0035627773 0.00065036427 0.00055028935 0.0010810305 -0.002603003 -0.002649303 0.0021724445 0.00031548186 0.00054958544 -0.0006042664 0.001149143 -0.0015148142 0.0010124452 0.0027671747 -0.0018015757 -0.00015344583 -0.0024561114 -0.0022878847 0.002600883 0.00022398352 -0.0037459503 -0.0012984993 -0.0013136296 0.0007168532 0.002928076 -0.0007808137 -0.0034325612 0.0023858533 -0.0005853558 0.0024277014 0.00062902813 -0.0035447308 0.0037196407 0.00281201 0.0022024214 0.0038386052 0.003859108 0.003540903 -0.0011714355 0.0011086786 -0.0020637445 0.00022881506 0.0017970393 -0.0018778293 0.0006327203 0.0018914868 -0.002059343 0.0023631873 -0.003813029 -0.0018397293 0.0012260929 -0.0026809922 0.001238285 0.00074908545 0.00023736006 0.003019135 0.0035230988 -8.605252e-05 0.002250608 -0.001385256 -0.001735306 0.0022667833 -0.0017165685 0.003692589 0.0013686253 0.0030057195 0.00013013654 -0.0011812081 -0.0013226483 -0.0009024258 0.0015700213 -0.00200622 0.0030390765 0.0029469659 0.0021019364 -0.0023048741 -0.0030451198 0.0012103088 -0.0016428538 -0.00017961038
3 0.0018329828 -0.0012861574 -0.0032391734 0.003506659 0.001992869 0.0006190767 -0.001987744 0.0033640855 -0.0028264986 -0.003489206 -0.003104125 0.00093177636 -0.000994308 0.0026449142 -0.0034219495 0.0023577455 0.0013934511 -0.003111428 0.0001676764 -0.00079917366 -0.0017485376 0.0009687111 -0.001189105 -0.00016760972 -0.0019018953 -0.0013846116 0.0009065365 -0.0037205084 0.00026740562 -0.00046509464 -0.0009685216 -0.0033204944 -0.0036637394 -0.0036231924 -0.0004047258 0.001407725 0.0003994204 -0.0024891216 -0.0013740724 -0.0022812607 -0.00074773 -0.0016671182 -1.5916827e-05 -0.003401921 0.0018972117 -0.0036741633 -0.0038679328 0.0031415732 -0.00035259628 -0.0012367159 0.00042532667 0.00024916494 0.0012636173 -0.0020416458 -0.0028440512 0.00029320936 -0.0037742225 0.0015556059 0.0014465322 -0.0034230894 -0.0038167518 0.0018748939 -0.0017077873 0.0032903901 -0.0023465543 -0.0021979213 -0.00014465199 -0.0005768857 0.0033633045 -0.0032376684 0.0018763617 0.0027920846 -0.0015129154 0.0033286083 0.00025139103 0.0024109043 -0.0036930116 -0.0009869541 0.0005593355 -0.0036150028 -0.0022670375 -0.0004960463 0.0003994705 0.0027717613 -0.00276231 -0.0029238428 -0.0016465789 0.0011091823 -0.0032909282 -0.0014524668 -0.0013569967 0.0028157164 -0.0022533734 0.0024925505 -0.0032852353 0.0036111183 -0.0027188237 0.0037736266 0.0036706969 0.0007185203 0.0037069158 0.0015758149 -0.0034126511 -0.00057330774 0.002973878 -0.001436535 -0.0030817383 0.0037162825 0.0008707714 -0.0014922924 0.0027868222 0.0009016634 9.497634e-05 -0.0026595034 -0.0017588598 -0.0005194966 0.002989583 0.0017436454 -0.0032148582 -0.0019087471 9.9008364e-05 0.001846887 -0.003595011 -0.0018893026 -0.0029036326 -0.0026409263 0.00357419 0.0019386783
